{"layer1": {"W": [[[0.1877403000304205, -0.05225899269549693, 0.244803268141548, 0.5756511573330387, -0.08850165699638106, -0.08849545041167034, 0.5968863279639504, 0.29006305808684335], [-0.1774446348319296, 0.20506841995382447, -0.17515541885339087, -0.17602929696928493, 0.09145314147125748, -0.7231519608969246, -0.6519576807645195, -0.21252470218568045], [-0.3828141698900861, 0.11877433024401182, -0.34320084009775137, -0.5338006184616378, 0.5539631650952834, -0.08533542018482611, 0.02552326170920295, -0.5385041958926465], [-0.20575733959249526, 0.04192479823565756, -0.4350346840132204, 0.14200050791765162, -0.22702008503170418, -0.11024987338142474, -0.2274237270580634, 0.7000953660414696], [-0.005101471537577716, -0.3997771376237126, 0.31089276188790543, -0.46143553539850285, 0.07894302091623337, -0.7406856640826794, -0.502007134836047, 0.07440655380732245], [0.27911412450305634, 0.06477112391362606, -0.04371094292605575, -0.1138064942334868, -0.5588287670534773, -0.272075542042966, -0.17410508674567568, 0.39955464676852903]], [[0.12987551101282627, -0.6663665544080417, 0.12249223218479999, -0.1455474190128704, -0.2558524758035471, 0.2311919012085865, 0.3896811982936532, 0.3519908058681722], [-0.3171944166076242, -0.11687129675226493, 0.1252058050885782, 0.3687213927622666, -0.18111083400716024, -0.07017249718793726, -0.41815529678513574, -0.4521235857161134], [0.30710588913371667, 0.5126105497639055, -0.02721726790361655, 0.3792997785953389, 0.1366855649963084, -0.24383233751409755, 0.1365946965410246, 0.5813231872633012], [-0.013540969787820446, 0.5913797018265956, -0.9901705444280385, 0.3106499503815093, 0.03290070003963846, -0.11301415779948183, 0.03468231369791344, -0.7512304149575916], [-0.08302817019154712, 0.134975859296558, 0.5585914524859901, -0.19588772095210522, -0.3055818628212104, -0.18964632980444154, 0.3459894777574502, 0.1242562426847144], [-0.2002305279745569, 0.19399686408117917, 0.03669186446129508, 0.36611338811966604, -0.2653511186528975, -0.12384464811968772, -0.14820294739575146, -0.5531566470094621]], [[0.11192294784074089, 0.098669614111101, 0.0019327050288231436, -0.08866560207291857, -0.534959841775158, -0.1589889891074846, -0.12953391230513608, -0.303232304421083], [-0.06096026963702508, 0.15271686917018237, 0.7129112538233041, 0.06598421272276625, 0.09734489689092046, -0.02813791224105823, -0.7252273707331871, -0.010021302614463658], [0.022764879741941527, 0.931017984828832, -0.07270561167001297, 0.11397418466286698, -0.013119816124880642, -0.4417187814989979, 0.4319464406545457, 0.2842039745346095], [0.29898197663724296, -0.3437161555920273, 0.5302064314389583, -0.5298498963767737, 0.22181112714764437, 0.8279144248987378, -0.3743875427701716, -0.21404041550450884], [0.03766467621333117, -0.19029591479009994, -0.5860957017150534, 0.025914369475785664, -0.4015130438970331, 0.179001113359593, -0.34750969676390886, 0.5858201338595851], [-0.2960419253447284, -0.12172780848566465, 0.30748060464548943, -0.46522297136364543, 0.08597177534518008, 0.4940535148035599, -0.6075715661791748, 0.06978504184438984]], [[0.09822646846844325, 0.2955012653575322, -0.46752344029704085, -0.49908569203344544, 0.1972753601000427, 0.11224965525081296, 0.09467739464316192, 0.13094511619937999], [-0.25702519365151993, 0.08778364751194721, 0.11077097868430552, -0.26999945635355893, 0.7051964802920986, 0.17909201560753404, -0.45027039639377653, 0.24815394527624873], [-0.368395045807205, 0.2974900082922262, 0.43790796101505414, -0.31018877072411133, 0.3641219417723938, 0.1560165306566892, 0.31070953810041985, 0.7169203696198567], [-0.09274799161455877, -0.2848854823171285, -0.3362048589142055, -0.3083472961896132, -0.029141706227662077, 0.12894332929899627, 0.10457929653542299, 0.31264587988797365], [0.004914253176402387, 0.5493842600410047, -0.10003088372218226, 1.0281272680493458, 0.23648002402431043, -0.3239750935077569, -0.4047593017209019, 0.1823574338680507], [-0.08446099575430685, 0.2698668314381614, 0.1788670128314966, -0.02752674105850278, -0.32005793879573835, -0.5725584533436101, -0.16876679309818848, 0.3236883290185273]]], "a": [[0.0021409373730421066, -0.012457387521862984, 0.0017318092286586761, 0.0038531736936420202, -0.008838574402034283, 0.0015372509369626641, 0.0005820872029289603, -0.01142970286309719, 0.0035778735764324665, 0.005607845261693001, 0.010830512270331383, 0.010538020171225071, -0.013776693493127823, -0.009378249756991863, 0.005150352604687214, 0.0051378593780100346], [0.005150476470589638, 0.038527313619852066, 0.005708904936909676, 0.011355656199157238, 0.009540017694234848, 0.006513912696391344, -0.003152692224830389, 0.007589692249894142, -0.0077282520942389965, -0.0023681861348450184, -0.004853635095059872, 0.0008187413914129138, 0.02314658649265766, -0.018672652542591095, 0.006862601265311241, -0.01612715795636177], [-0.004719318822026253, 0.010889505967497826, 0.0006428001797758043, -0.010777447372674942, -0.007153037004172802, 0.006795977242290974, -0.007303666323423386, 0.0021645857486873865, 0.00045571840018965304, -0.006516003515571356, 0.021439440548419952, 0.006339190062135458, -0.020251426845788956, 0.0018645430682227015, -0.0066178641282022, 0.008524333126842976], [-0.00792520772665739, -0.0011473643826320767, 0.005049872677773237, 0.008657551370561123, -0.012002963572740555, -0.0033450121991336346, -0.0047494531609117985, -0.0065332925878465176, 0.01765454187989235, 0.0040498171001672745, -0.012608839198946953, 0.009178618900477886, 0.02122156135737896, 0.010324652306735516, -0.015193698927760124, -0.0048423404805362225]], "bias": [0.0, 0.0, 0.0, 0.0, 0.0, 0.0, 0.0, 0.0, 0.0, 0.0, 0.0, 0.0, 0.0, 0.0, 0.0, 0.0, 0.0, 0.0, 0.0, 0.0, 0.0, 0.0, 0.0, 0.0, 0.0, 0.0, 0.0, 0.0, 0.0, 0.0, 0.0, 0.0], "in_dim": 6, "out_dim": 32, "n_heads": 4}, "layer2": {"W": [[[0.05755637110296414, -0.2031426209372791, -0.08463586925659491, -0.11961077020725146, 0.19187103487051205, -0.09235183713914454, 0.1113983541770479, 0.4494942301895146], [0.2823844138364869, -0.0982114273474836, -0.07746586971962957, 0.10181257399250848, -0.373124315554184, -0.19276818278688532, 0.11021821942106867, -0.02779732111155882], [0.432709635323904, -0.13828798158926686, -0.23408031628024467, -0.19892453432670518, 0.003139559557177574, -0.03596261265250597, 0.4987235577660298, -0.08924498616916808], [0.012174174307670734, 0.19770906036878483, -0.02414518818819118, 0.12423749341277739, 0.08830380919240917, 0.1872047408218546, -0.3148111270863224, 0.18064061900732642], [-0.030921161954314623, 0.04185440331790322, -0.08645938673756169, 0.37097456186144495, -0.45773856012469577, 0.31289679925181013, -0.15183060618289113, 0.3418914715681913], [0.27307219092890084, 0.2269583375407879, 0.18517549893901628, 0.5067584781063027, -0.13303613502388983, -0.1299758254430058, -0.14666239284104068, 0.20686957060969316], [-0.2905013013998177, 0.22610377259639347, -0.06449718228745738, -0.23874788981726205, -0.24095889901523265, -0.17816403600664826, -0.33228923129902155, 0.11496268221171548], [0.19046622329132984, 0.21436589299045514, -0.14008608923108568, 0.06885546616946966, 0.0011640265098228763, 0.1546312329387248, 0.09947420239071005, 0.020187117602761376], [-0.41553810185344514, -0.037248431814214875, 0.024792734248349903, -0.1553558898305753, -0.06018948484367537, -0.2905155623638294, -0.07180136150216829, 0.1131156874521444], [0.4671279255179825, -0.22644867467741656, -0.0053607650945164675, -0.21499101635030624, -0.020698429806596672, -0.050028014865190845, 0.18624035312656637, 0.21781976519405083], [0.036407248185584704, -0.02560119429577473, 0.26530241789521547, 0.040202633825250224, 0.3390866464911766, -0.3653806654078472, 0.39846079736949347, -0.1381281121842946], [-0.24292627230466698, -0.010007148355072895, -0.2602117602071819, 0.1272187412754209, -0.10345031242921446, 0.06425455264320415, -0.21853958402054033, -0.04973826073168121], [0.021674602789200186, -0.04212402216974868, 0.3558930726269285, 0.13099128604866114, 0.04554320157958505, -0.415130638122823, 0.08456573063686448, 0.2764093897876756], [-0.15428238576859193, -0.044353457332902614, -0.6765760117010281, -0.2785304882723537, -0.4660053877302056, 0.023282308235457697, -0.03359323011798397, -0.023661290022067624], [-0.09770591615728016, 0.22788580666569072, -0.27566318151376257, -0.016574750444580094, 0.1333566735140593, -0.04011339617614712, -0.02030239483918958, -0.1844934116911409], [-0.07490144851024198, 0.16062812824168865, -0.4515654552841631, -0.035336369740339955, -0.1306344687322862, -0.01572101017041766, 0.39649536996860657, -0.09986934438186594], [0.3330342933646121, 0.24603652191559947, 0.0066850197200375066, 0.01947745138312787, 0.040525364772036436, -0.18451401678493723, 0.14016540418139747, -0.13700340193190663], [0.007992229078263606, -0.4910321800503975, -0.193035875742189, 0.1196518604428104, -0.25121402487606315, 0.07467686498306525, -0.11342017902579976, 0.22140430514640413], [0.28128482687116624, 0.03971814089695936, -0.0033244554129399253, 0.009041790214511663, -0.004795196253418445, 0.2664625139975577, 0.5601047727289462, -0.2981709811253462], [-0.22992874973638328, 0.30481400472206993, -0.255420369515334, -0.3067942262071185, 0.4730114394930514, -0.06132972888443309, -0.05593421976664291, -0.11377794263044089], [0.1299917390794824, -0.2533688698662344, 0.39676550194859633, 0.16838627925610464, -0.011582884085337128, -0.12336512225537397, 0.024206988475575984, 0.2334387061797558], [0.5852779598423199, 0.33737085260051314, 0.22649188406557164, 0.009625320206662269, 0.2755964082149788, -0.07745981880592742, 0.07421137778812081, 0.26177556154308895], [0.1356787183112649, -0.14862987275450498, -0.3427386527985086, 0.11213805172112941, 0.030105624736898946, 0.20795203109019603, 0.012944477113361691, -0.08487747930856132], [0.23567106683973268, 0.22278243406208034, -0.47162996524843415, -0.33968456739537545, 0.02903190409485467, -0.014587630051590802, -0.04181112728972941, 0.18423690093098283], [0.4506791430348379, -0.23063881246412832, -0.015097434525001962, -0.005675488826550205, 0.04590495358934814, -0.2736141608733603, 0.10452049781826425, 0.008206596690566545], [0.45591177061880855, 0.08604631191736119, -0.15664272192056913, -0.3347739710379942, -0.02190110388291635, -0.16762674297844238, -0.09473564390572416, 0.07729023995022384], [0.05255157907908511, 0.04335747227272584, 0.3113193766960714, 0.09122166906922125, 0.6067526259152766, 0.03607558747628649, -0.09098475713857646, -0.33476026985014], [-0.29390242136457384, 0.20277003659246884, 0.14510568200312826, -0.02005724453622728, -0.05017262703787114, -0.19847447429610052, -0.03720092081284974, 0.02761297482770107], [-0.4511682807724354, 0.16215810310408008, -0.45330550614165016, 0.07535064888460484, -0.00999484910661304, 0.0653097506920379, -0.14500876075986371, 0.3786732433231318], [0.1605703646734394, 0.14208337056093331, -0.040011217035403494, -0.016827386087648066, 0.198048111456162, 0.29120104825266085, 0.31308866919378436, -0.010372515585852962], [0.01267880668262695, 0.07403178960160155, -0.058535986042535904, -0.15859646066216795, 0.03722140595461233, 0.10583816424493199, 0.11710381268602876, -0.016890285935342184], [-0.14714200105595743, 0.11163927117281934, 0.08966581788755065, -0.2055051428818712, 0.2121646665472365, 0.1699031127067993, -0.009361752268518972, -0.2804569712462853]], [[-0.27148946382766986, 0.09714702631206099, -0.11749300372351061, -0.06129204395383208, -0.2524271930893349, 0.1840865877046988, -0.42301679128524683, -0.010659334226536825], [0.07942406667848252, 0.13683299007596872, 0.10783501907865964, -0.27269540826290956, -0.09223616339460479, -0.16648266713660675, -0.2620887429751888, -0.3936097771888714], [0.10701350758356336, 0.263764046390462, -0.1277724531911835, 0.17141217593130814, 0.11999043172205259, -0.20218552366004172, -0.025598856897117203, 0.009292050140911333], [0.16528076108650314, 0.02453311639731779, -0.3897282360009698, 0.409400262910833, 0.08698516315746586, -0.22231483437854166, -0.34376362959884094, -0.19487311440301563], [-0.07839232591624745, -0.1518694040018052, -0.10627976765715777, -0.22796284252736138, 0.12420755871635657, -0.2344281238660851, 0.12049670927247161, 0.15178705026663858], [-0.33623485352894955, -0.10563088046662178, 0.20332012329121163, 0.035291467695708734, 0.19371473761315705, 0.24232427303132084, -0.25198728899758716, -0.09754312791948683], [0.06469316391858822, -0.06342757000256881, 0.07383087660908347, 0.3269529385018893, -0.045873646108541145, 0.04760754609229797, -0.029825276842035345, -0.46152302013328783], [-0.18919283915711899, -0.04978434563664518, -0.10510828943961367, 0.17523090223753954, 0.2391382137350626, -0.15779959264600404, 0.23599344459441954, -0.12006972001635688], [0.06493110876952359, -0.09131345903104233, -0.30426041275834104, -0.17792615779573165, -0.37226487256041735, 0.17821197683613432, 0.30135093619588726, 0.20073050549073607], [-0.07111362984470511, 0.15498466494214744, -0.4382895107175575, 0.22874786194819222, 0.41368041803486716, 0.14841778423084315, -0.11425796401347388, 0.1861683819063204], [0.012184293594517353, -0.23330246732543095, -0.30428027148392744, -0.052240790023658217, 0.004715186997411345, -0.5771135446176192, 0.6505914157194, -0.09960220453871785], [0.28972694438198626, 0.005490709382570602, 0.2833179871871069, 0.495484906166977, -0.12261045069908018, -0.07710616689044295, 0.13269260572725292, 0.21872217767190505], [0.04820516378441153, -0.03686213961754849, -0.3133123397527043, 0.019560738078556933, -0.230324484823706, 0.0004099432078820668, 0.2709777751077287, 0.08581794990112153], [0.07791637623835986, -0.3469690944685581, 0.10716461382607048, -0.11998857912953145, -0.43517384993710284, 0.29575482729366714, -0.057066427021139836, 0.00883884470142183], [0.10552082447566234, 0.281404805560917, -0.16880573819010106, 0.32603794438849576, -0.010057019246101886, -0.17993654055326477, 0.024474828038920916, -0.14242995197042882], [-0.023036020054175304, 0.33651322221525637, -0.42288097892704196, 0.01466125394430166, -0.0038060018111519133, -0.07056400296209166, -0.10423621149829275, 0.15214690636786835], [-0.1355257128282235, -0.6472678380804571, -0.3375757573301541, -0.06929662309356983, 0.20244933816625438, 0.12392847031784728, -0.48268986263165187, 0.12379360424790861], [0.024051387363804428, -0.11803145507498032, -0.11407902223513644, 0.13098834055983255, 0.06516970002864078, -0.22596953294263103, -0.24349953640192973, 0.02471671131496418], [0.41420945981568985, 0.2348336417081598, 0.13286922843293797, -0.23869004628099033, -0.18219311819605408, 0.1478126662046197, 0.17883219549060567, -0.18089635674326704], [-0.037578209942983505, -0.18746535660716743, -0.12971050487236946, 0.22484552907444177, -0.0633833743421363, -0.2078671850183283, -0.3320647610598767, -0.03286916965430127], [-0.06927861696050461, 0.3230401031611844, -0.19069021372233974, -0.21416012194057046, 0.14012136845700995, 0.04873230299269906, -0.001328091632850413, 0.03600351629601242], [-0.10330233826758842, 0.01702585172547768, 0.1706630354965703, -0.25082503375863757, 0.19839523931381123, 0.23887072069981516, -0.11622481751076197, 0.6477535638490948], [0.4218979853385198, -0.3808645270755535, 0.2280069582197714, 0.16818302719892858, -0.2420120512154909, 0.11514667530347387, -0.10521182137273785, 0.20031163298890464], [-0.21716344097742274, -0.22128721863346698, 0.42214343385556596, 0.008686126603461283, 0.17352565079784174, 0.22096653353525628, -0.029483850037989867, -0.09334760561926038], [0.11432317793581896, 0.39996747488133116, 0.0354701895619843, 0.09581444584919784, -0.04073130908596985, 0.07785877260615559, -0.11118423313281432, 0.08285216252282715], [0.22189666826090892, 0.32244036964847567, 0.21179377485890236, 0.10429348859440514, 0.44344510243985746, -0.012126041055130552, -0.03803051574221993, -0.40722017468156063], [0.074336807631405, 0.15242520841415644, 0.2519801984995926, -0.022938157520645968, 0.5217376082720249, 0.20003093190194168, -0.2361256050795971, 0.09010079061791118], [-0.0010991088231861283, 0.3008473509022256, 0.012548441312954364, -0.18438730745329313, 0.07288847345597962, -0.11930734487389603, -0.38976851322830003, -0.1870267586597871], [0.035665098288813334, -0.12029508323175296, 0.29315173488140106, -0.29404817641357567, -0.1716271699597873, -0.22245289916938013, 0.038323075420518785, 0.31006558472737195], [0.005138328208943592, -0.04300715902218055, 0.28102367796570343, 0.5185848423291323, 0.08934201403646262, -0.43180594335768985, -0.2803405644615394, 0.12293902597551044], [0.08496611719749571, -0.4762161313385511, 0.11609910777939904, 0.1442368427667184, -0.2999726073601548, 0.36658277137800704, 0.039726374271275455, 0.12607170661675293], [-0.1211616167235142, 0.38349408890326553, 0.5273932133829817, 0.0453247522661339, 0.34281672824447174, -0.24484633118079144, 0.01713351700576459, -0.2047965062505273]]], "a": [[-0.0014796274481341243, -0.008935470134019852, -0.002707120729610324, 0.006826935335993767, -0.01613727957010269, -0.012310024350881577, -0.0038423785008490086, 0.006364332512021065, 0.01773984357714653, -0.003597945673391223, -0.0003977249434683472, -0.004466792102903128, -0.005898808594793081, 0.0015610833652317524, -0.0045897020027041435, 0.008029693737626076], [-0.001919552800245583, 0.0062286886386573315, 0.010904356837272644, 0.00756249250844121, -0.0073169926181435585, 0.004576293285936117, 0.007184998597949743, -0.00184156175237149, 0.015011866576969624, -0.0013664721045643091, -0.005093852058053017, -0.006078016012907028, 0.0029629627242684364, 0.007391107734292746, -0.0019127530977129936, 0.010531637817621231]], "bias": [0.0, 0.0, 0.0, 0.0, 0.0, 0.0, 0.0, 0.0, 0.0, 0.0, 0.0, 0.0, 0.0, 0.0, 0.0, 0.0], "in_dim": 32, "out_dim": 16, "n_heads": 2}, "W_out": [[-0.0759616568684578], [0.1322922557592392], [0.12427101284265518], [-0.16152255237102509], [-0.14652998745441437], [-0.1721135824918747], [0.18567001819610596], [0.008234435692429543], [-0.005564223043620586], [0.05569685250520706], [-0.09606416523456573], [-0.017563998699188232], [-0.11741966009140015], [0.06010137125849724], [-0.0951675996184349], [0.035170696675777435]], "b_out": [1.126598931477929e-06]}